12 100
the 0.0026629553 0.004364199 -0.0026158735 -0.0030121189 0.0028031457 0.0039956714 0.00058017595 -0.002811469 0.003775783 0.0036728047 -0.002175313 -0.0010918333 -0.0025861454 -0.0046439087 0.0038367999 -0.0006784161 -0.0046730605 -0.00043105066 -0.001256468 -0.0016404567 0.0016180648 -0.0037343341 -0.004692111 0.0021458347 0.001871958 0.0038741804 0.0036765097 0.0010612115 0.0015733001 0.0029950705 0.0006825506 0.0027396227 -0.0021925103 0.0026922254 0.0019422746 -0.0007448263 0.001162094 -0.0028575514 -0.00078796165 0.00024143215 0.004761907 0.0040944335 -0.0031271025 -0.00441322 0.0014901276 -0.0036909743 -0.004043028 0.0041948142 0.0023861488 -0.0025432433 0.001206831 -0.0017507647 0.0016078778 -0.0021940544 0.0037559415 -0.004308927 -0.0015305328 -0.00015698248 0.0010526853 0.0013970276 9.154781e-05 0.004473486 0.0027571132 -0.0034210521 0.0043001887 0.0011627332 -0.0011256105 -0.0046228687 -0.0049484735 0.0001282494 0.0008984843 0.0006605222 -0.0040322384 -0.0027527355 0.0002804532 0.004688609 -0.0018687884 0.001450425 -0.0030809015 -0.0042526396 -0.00078544184 0.0020501753 -0.001777944 0.0034337125 0.003977129 0.0014028281 0.004392717 0.003276804 -0.001173986 0.00047237423 0.003651404 0.0031957985 0.0025546865 -0.0030409908 0.00031770312 0.0016169384 -0.0005893622 0.0036031099 -0.002815277 0.0038998954
of -0.00033678193 -0.004877843 0.0026317777 -0.0008035477 0.00013504396 -0.004290856 0.001583284 -0.003660483 0.0026328156 -0.0017660941 0.0014267043 0.00423265 0.004314138 -0.003504546 0.0036194 0.00037733436 -0.0042104824 0.004139303 0.0046571014 0.0031784843 -4.1764182e-05 0.0031246825 0.003914095 -0.0033221534 0.001679386 0.0016030376 -0.0006641627 0.0034514223 0.004643148 0.0037888477 -0.0028029701 -0.0010158456 0.0012501793 -0.004403966 0.0016312439 -0.0037095763 -0.0035667466 -0.003044862 -0.0011789377 -0.0038359205 -0.004587937 0.0028524294 -0.0050234054 -0.0032582034 0.003004341 -0.003662521 0.0045503415 -0.0029327173 -0.0038374455 -0.0014666765 -0.0018473302 0.0012365736 -0.0012165736 -0.004059733 0.0038238834 0.0032460012 0.0009811351 0.0006852082 0.005012232 0.003563851 -0.0037630042 0.0016568857 0.00025359442 -0.0027973196 0.001715619 -0.00082151085 0.0011705118 -0.002733699 0.0019455221 0.0030346941 -0.0020641566 0.0028716796 -0.00070355844 0.00097105117 -0.0035734756 0.0010461269 -0.001506196 -0.0028401185 0.0003181133 -0.0049008764 0.0046434756 -0.0011856193 0.0007508018 0.0027122085 -0.0005092848 0.0016323336 -0.004380949 5.0658353e-05 -0.0050414884 -0.0021523675 -0.0008563579 0.0046027624 0.0022754504 0.0024056432 -0.0017689344 -0.00431058 -0.0032799141 0.002790152 0.0005635746 -0.0047382712
a 0.00029721233 0.0035448151 -0.0012215844 -0.004412084 0.0009968665 0.0021961397 0.0045853155 -0.0020841553 -0.00020048962 0.0011463504 0.0035208794 0.0044962484 0.0020187036 0.0017479837 -0.0012600607 0.0044323294 -0.0026730264 -0.0020389927 0.0030634627 -0.0009879573 -0.0004623848 0.004786912 -0.0030371225 0.0010517687 -0.0004080265 -0.004178063 -0.0007879228 -0.0033515058 -0.0013276793 0.00013647796 0.004079102 0.003153158 0.0014727677 0.0011204781 -0.0039711855 0.0016063368 0.0017162437 0.00082873367 0.0013203553 -0.0020224056 0.0026425053 0.0023468903 0.003452505 0.004952546 0.0016966299 0.002531367 0.0034152723 -0.0027118365 0.0022105258 0.0019132962 0.0011849246 0.0012923545 -0.004766205 -0.0006919441 0.0028565319 -0.0006508425 0.0028769183 0.0012209249 0.003414845 -0.0006880102 0.0008054916 -0.003765622 0.000493538 -0.0027867546 0.00030636115 -0.0034233707 -0.0014269615 -0.0046161874 0.0006927137 -0.0026185692 0.003086194 -0.0033940063 -0.003751042 0.00462275 0.004977168 0.0046669655 -0.004897327 -0.0021875084 -0.0012344343 0.001281024 0.0029092303 -0.002307565 0.003062789 -0.001877708 -0.00016092889 -0.004534364 4.094768e-05 0.00010145887 0.003062722 -0.003087197 -0.0041931863 -0.0021861542 -0.001178255 -0.0049263677 0.0048023127 0.0010179409 0.002566214 0.0039105886 0.0031692109 -0.00040969843
keyword -0.004965473 0.0022309811 0.0040034433 0.0021676999 0.0003246806 -0.0005603914 0.003081941 0.003958861 -0.0023199827 0.004886069 0.0025832898 0.0026461512 0.002734361 -0.0018091822 0.003398373 -0.0021546676 0.0027247136 -0.0034692648 -0.0005514486 -0.0015399861 -0.0030718606 -0.004538963 -0.0048327893 4.1363364e-05 -0.001697758 0.004314172 0.00446394 -0.0045159073 -0.0031920562 0.0034809853 0.0034547576 0.004058545 -0.001236037 0.0045361645 0.0038437513 -0.0034946164 -0.0022107 0.004405589 -0.000975289 0.0045617307 0.004307352 -0.002070815 0.0024629254 -0.0040803244 -0.0049890215 0.0021227808 0.0026498318 0.0008390382 0.0042618564 0.0015188497 0.00034486255 -0.0010015492 0.0045591933 -0.00015196318 -0.000864812 0.002920378 -0.0020782463 -0.004705293 0.001494891 -0.0018258465 -0.002232143 -0.0034785124 0.0049431296 -8.007309e-05 -0.0006167509 -0.004701336 0.0038381654 0.0005778729 -0.0011536174 -0.00076403556 -0.0018576959 -0.0015433225 -0.002735412 0.004220335 0.0046726125 0.00067548384 0.0030401156 0.002265049 0.0037529534 0.0021389436 -0.0028357399 0.0033270977 -0.0009749177 -0.0001171865 -0.0043869386 0.0018214032 -0.0007533975 0.004419698 0.0032908896 0.0013185256 0.0022535736 0.004656083 -0.004946956 0.004852084 -0.0040556435 0.004089317 -0.002010818 -0.0019050295 0.003527266 9.888079e-05
extraction -0.004123453 -0.002085236 -0.0014066875 -0.004696039 0.0048755417 -0.0029209987 -0.003949323 -3.4636585e-05 -0.0010169428 0.004129543 -0.0012668584 -0.004357298 0.0021006723 0.0013518396 0.0029637066 0.0017112022 0.00086939294 -0.0029208723 0.004773232 -0.004506942 -0.0012582082 -0.0019497907 -0.0025346046 -0.0031373976 -0.0011070501 0.004222933 0.0026157887 -0.0035329126 0.00083068636 0.003398905 -0.0004751032 -0.004312379 0.0012346556 -0.0003851537 -0.0020375326 0.0044035064 -0.0018703939 0.0032038516 -0.0045599863 -0.0035906204 0.0006532389 0.00079763297 0.0038321693 0.003569284 0.003752005 0.0047087125 0.0046873037 -0.0047984323 0.0031685568 0.0025208013 0.0015441125 -0.0011457242 0.0021838695 0.00044084043 0.00041964676 -0.0049324245 0.0005214659 -0.002058599 0.002701227 0.004669537 -0.0016548239 -0.0039346684 0.004829628 -0.0010419058 0.0015240404 -0.0014785981 -0.0026847548 0.0027341985 -0.0031537947 -0.004841758 0.004347407 6.260224e-05 -0.00010358903 0.003229506 0.0032113176 -0.0023662613 -0.004050716 -0.0034855672 -0.0050181434 -0.00021496144 0.003372937 -0.003154898 0.0038871677 0.002337584 0.0030684997 0.002297345 0.0001720225 0.004131365 -0.002159351 0.0030538165 0.0011078134 -0.00076579343 0.0045402907 0.0028467611 -0.0005107673 0.003211343 -0.0008038573 0.0008826782 0.0005926326 0.0026917642
and 0.003107729 -0.002646476 -0.002234049 -0.000154522 0.0004664843 6.8883535e-05 0.0032611834 -0.004531451 -0.0041531357 -0.0023902126 -0.0045373132 -0.004992593 0.0040274 -0.0008299485 -0.0013300452 -0.004970266 -0.0036597871 -0.0031415883 0.0036537217 -0.00064545777 -0.0029230288 0.0030094164 -0.0038731662 -0.0034866838 -0.0010881476 -0.000110138666 0.00014978008 0.002605404 -0.0026286212 -0.0022109065 0.003285041 -0.0026691027 0.003218851 0.0022931101 -0.00182355 0.0031536138 0.004423709 -0.0013655497 0.0014096716 -0.00048447854 0.0029301655 -0.002048199 -0.0020463078 0.0044728867 0.0029182087 0.00019570673 -0.0013661903 0.004499502 -0.00313797 0.002101349 -0.00021875562 -0.0010704309 -0.00074424816 0.002004067 -0.004751993 -0.0021933776 0.0020776314 0.0025059902 0.00052972225 0.004858979 -0.0020504885 0.0018042115 0.0013133684 -0.0028933887 0.0006562949 0.004570917 -0.0028066563 -0.0020177984 -0.0023394246 0.0023051442 -0.0011294996 0.0042497437 -0.0031264878 0.00022985134 0.004732915 0.004869993 -0.0021817766 0.0038547132 0.0043052407 -0.0036909427 0.0030767436 -0.0020069215 -0.0021481232 0.00291833 0.002818962 0.0022229634 0.0017762969 -0.0033910556 0.0040396038 -0.0019861734 0.00096574915 -0.0006146311 0.0006350337 0.0018400216 0.004839766 -0.0049581975 0.00395128 0.0003475442 0.0046729227 0.0038886385
rake 0.00040578892 -0.0010002101 0.0021012032 -0.0021032111 0.00039117382 -0.0026104772 0.0023093775 0.0013162846 0.0020217036 -0.00089043425 -0.0004558641 -0.00200553 0.0010943016 -0.00016937476 2.6608317e-05 -0.00027081536 0.0012690341 -0.003855399 -0.003198005 -0.0011418876 0.0012338379 0.0024436845 -0.0029039872 0.0009651653 0.0046785693 0.0030677451 0.00032638147 0.004295678 0.0010709484 0.0010794234 -0.004955114 -6.5343076e-05 -0.0013649485 -0.0025044298 0.004619385 -0.0028746086 -0.004074896 0.0007562627 -0.0029538851 -0.0023116095 -0.0023054671 -0.0037648422 -0.0015278303 0.004190278 -0.00062316505 0.0040648147 0.0030856915 0.0023134705 -0.004938764 0.00457831 -0.0044014286 -0.0002066523 -0.0035801446 -0.00012487016 -0.0007482391 0.0018903111 0.004190823 0.003247221 0.0045002685 -0.00078728783 0.004770991 -0.004427635 0.0042403834 -0.001997752 -0.004958905 -0.0031603693 -0.00075952715 -0.0033429917 0.00010210785 0.0010359905 0.0038938532 -0.003890995 -0.0049268682 -0.0014703489 -0.003949064 0.004453585 0.004712905 -0.0027598555 0.002894179 -0.0005892359 -0.0033933572 -0.001333262 0.00033685364 0.0019185656 -0.002067481 0.00083827984 -0.0040167305 -0.0012892841 -0.00043823416 -0.0026459296 0.0045220084 -0.004805488 -0.00026643783 0.002183896 -0.00056009047 -0.0015928242 0.0034213804 -0.0024434826 -0.004448082 0.0025088005
 -0.00092590175 0.00061856105 -0.0033941017 -0.0036003024 -0.0028904574 0.0006980699 0.00398957 -0.004717232 -0.001848949 -0.0018359643 -0.0029503407 -0.00284897 0.0026978392 0.003111223 0.00093493605 -0.0010733003 -2.810869e-05 -0.0040559736 0.0040716664 -0.0007270229 0.0005882608 0.0043153493 -0.0009222189 -0.003406071 -0.0011057926 0.0033351504 -0.0033261366 0.0038344234 0.0018879091 0.0036298372 0.004574951 0.0021742594 0.0031193586 0.004583502 0.0028078812 0.0004424106 0.0031195774 -0.0026575963 -0.0046680435 0.0029725444 0.004089578 -0.0033301008 0.0025954496 -0.004082928 0.00046637235 0.004870343 0.0033117903 -0.0025413067 -0.0022845156 -0.0040337183 0.002089109 -0.0034698565 0.0026368387 -0.0027399317 0.004794411 0.0031562177 0.0005393561 0.000372959 0.0029510166 0.0047993455 -0.0028554408 -0.0010818053 -0.0006925345 0.0025924847 0.0011654806 0.0005287237 0.0006493414 0.0038328273 0.00041051547 -0.0037297818 -0.003688166 -0.0018261133 0.00090585195 0.0027081033 -0.0022967823 -0.0041257152 -0.0034447059 -0.0029503643 -0.004432998 0.003201603 0.0002457064 -0.0027468917 0.0017785156 -0.0015223031 -0.0005381641 -0.00011551134 -0.00074807357 0.00031016182 0.0015416688 0.0019051826 0.004716539 -0.00409826 -0.003460421 -0.0041883364 -0.0027972471 0.0028251556 0.0048678764 0.0042001703 -0.0001511738 -0.0021081327
is 0.0023989459 0.003848735 0.0028585456 -0.0038068595 0.0020560878 0.004098157 -0.0016725219 -0.0012309453 -0.0049574785 -0.0021587587 -0.00015872331 0.004121525 -0.002673416 -0.0030032962 -0.0042658984 0.002535118 0.001667767 0.0011034479 -0.003310042 -0.0024569451 -0.0012956557 0.0027262855 -0.0028195258 0.0037052026 -0.0033975416 0.0018484518 0.00058998354 -0.0035286727 -0.002138479 0.0017368014 0.003611507 -0.0029057546 -0.0036546953 -0.0016836715 -0.0044276896 -0.0010753016 0.00035163847 0.00025951918 0.004953373 0.002189374 0.0023112544 0.00033457758 -0.0022113114 0.0037682485 0.0019948569 0.0038678201 0.0016886689 0.00025584828 -0.0016221057 -0.0048760073 0.0008174881 -0.0038837178 -0.0035355866 0.004600065 0.0031749015 0.0010671443 0.00016247452 -0.004457368 0.00040594907 0.003004781 -0.0018400077 0.0009221341 0.0048977565 -0.0037872547 -0.0028969687 0.0008099949 -0.0049852026 0.003048871 0.0018095373 0.0034864692 0.004958443 -0.00012249434 -0.0032679911 0.004770182 -0.00041675038 -0.0018489695 0.0037515536 -0.0038501036 -0.0047877347 -0.0035402684 0.00029265962 -0.00056797196 -0.0019069759 -0.0030601195 -4.443667e-05 -0.0045558857 0.0022342203 -0.0036084235 -0.001952644 -0.004398751 0.0016013199 0.0004268715 -0.0036700428 -0.0011566476 0.0002534159 -0.0002233946 0.002567368 -0.0006610347 -0.0029884814 0.0017245754
rapid 0.0011674537 0.002530719 0.00063846994 -0.0032556353 -0.004935954 0.0031169106 0.0023224135 -0.0038519036 0.0016814878 0.0011518261 -0.0038200202 0.00015044567 -0.00054629886 -0.002710033 0.002443049 0.0037012694 0.0017496556 0.00030153018 0.0020174682 0.002174751 -0.0029517207 -0.0014099475 0.0040067914 0.0027193504 -0.0045619416 -0.0036883007 -0.0017431258 0.0008868516 -0.0014240909 0.002217198 -0.0029635984 0.0016868382 0.00025165037 -0.0022278344 0.0010397384 -0.00427338 -0.003174782 0.0007982547 0.0012975519 0.003089188 -0.0016914423 -0.0049420865 0.00427706 -0.004925971 0.0029645958 0.0022595965 0.0013802382 0.00017767033 -0.0048779133 -0.0033291676 0.0044023055 -0.004984738 -0.002776749 0.0040205973 -0.001461675 0.0037985449 -0.0028085518 0.004000579 -0.0035051322 0.0024744018 0.004723893 0.0044221496 -0.0047618165 -0.0007161642 0.00043762597 -0.0012505341 -0.0023571658 0.00072627957 0.00029292572 0.0027214051 0.00463858 0.004618295 -0.001222439 0.0010305812 -0.0016763776 -0.0020612387 -0.00312126 -0.0047241827 0.004095341 -0.00093578984 -0.0016434188 -0.0033324643 0.0012605926 -0.001571954 0.0006935384 0.0046286364 -0.0036296141 -0.0043130987 -0.0026868053 -0.0033190513 0.002945745 -0.002484551 -0.0015864905 0.0022440176 -0.0010637628 -0.004936977 0.0013859869 -9.302417e-05 -0.0026714823 -0.0041188933
automatic -0.0013531855 0.003444633 -0.0015160472 -0.0019663256 -0.004463575 -0.0028923054 0.004738445 -0.0016799249 0.004407368 -0.0028507449 0.001833523 -0.0037807457 0.004353725 0.00084135716 0.0023191832 -0.0026862686 5.5892648e-05 -0.0045238254 0.0043618414 -0.0010780629 -0.00049094815 0.004209423 7.279783e-05 0.001259699 -0.004754994 -0.002670362 -0.0024826792 0.0019195814 0.0012678588 0.00032054185 -0.0038013763 0.00030534534 -0.0010546003 0.0026425284 -5.4163796e-05 -0.0015045409 -0.0021670752 0.0017600959 0.0034736993 -0.0013499241 0.0032454361 1.0123287e-05 -0.003670679 -0.0004916065 -0.002822984 0.0026406054 -0.0007412077 0.0009763929 0.002355911 -0.0009089033 -0.0021753071 0.0033755703 -0.004663285 -0.0034946855 -0.0013629422 0.0009835724 -0.0048003774 -0.0032193484 -0.0033384897 -0.004636027 -0.0039034502 0.002031766 -6.482226e-05 0.0031155238 0.0016945514 -9.2675386e-05 -0.0031175108 0.0018616056 -0.0016212036 -0.0037206686 0.0041770367 -0.0027087843 -0.0037735037 -0.0026969581 -1.1917519e-05 -0.0029642088 -0.0029023923 -0.004952309 -0.0047849216 0.0011308972 -0.004717808 0.00296444 -0.00047771382 0.0042590993 0.0014600232 -0.0028967452 -0.0027796335 -0.004911619 0.00011181171 0.0019204615 -0.0015339542 0.0048848377 0.0045168363 -0.0030028329 -0.00032108487 -0.0047799675 -0.0047055464 -0.0014517481 -0.0018373484 -0.0014377248
in -0.0019415804 0.0018727189 -0.0027529222 -0.0028845693 -0.00065414683 0.0012380322 0.002704527 0.0016263215 -0.001975302 -0.00056388695 0.003197723 0.0045581926 -0.0006897975 -0.0047543533 0.0023511962 0.004770335 -0.0028619743 -0.00048340927 0.004980226 0.00434417 -0.0009742655 0.0019558144 0.0031702672 -0.001241185 -0.00393543 0.004020592 5.3706768e-05 -0.00093521504 0.0027719503 -0.0014996813 0.0008570916 0.0044185133 -0.002462127 -0.0020321088 0.000535792 0.0022254107 -0.0044996683 0.0024621787 -0.0003496263 -0.0012797719 0.0017780482 0.0022167552 0.0032706384 0.002625105 0.0048439847 0.0031687124 -0.003721723 -0.0037956622 0.0039228527 0.004619528 -0.00456049 -6.996339e-05 0.00208213 -0.0027346257 -0.00096641335 0.0034411992 0.0025145856 -0.0037273187 0.0022556602 -0.0034315903 0.003634964 -0.0024752154 -0.0023486265 0.004133653 -8.162758e-05 -0.0016385086 -0.002477058 -0.002231995 0.004022789 -0.00023222079 -0.0034922888 -0.0015487882 0.00065456197 -0.0023032273 0.0043053473 -0.00016071895 0.00404215 0.00033478756 -0.00061260053 -0.0019368244 -0.002545301 0.00018226577 1.3841285e-05 -0.00023357607 0.002518222 0.0032053755 0.0012605105 -0.004141738 -0.0016027208 -0.00028513456 0.0012947399 -0.0025680987 -0.0010221929 -0.0034932012 -0.0046109096 -0.00061226607 0.0016511687 -0.00023105137 0.0023919132 -0.002343338
